<?xml version="1.0"?>
<opencv_storage>
<stage10>
  <maxWeakCount>8</maxWeakCount>
  <stageThreshold>-8.8361316919326782e-01</stageThreshold>
  <weakClassifiers>
    <_>
      <internalNodes>
        0 -1 179876 2.5861062109470367e-02</internalNodes>
      <leafValues>
        -3.9127707481384277e-01 6.7463117837905884e-01</leafValues></_>
    <_>
      <internalNodes>
        0 -1 224700 -1.6757413744926453e-02</internalNodes>
      <leafValues>
        6.4027625322341919e-01 -4.0082287788391113e-01</leafValues></_>
    <_>
      <internalNodes>
        0 -1 111897 1.4877876266837120e-02</internalNodes>
      <leafValues>
        -3.1970560550689697e-01 6.1649262905120850e-01</leafValues></_>
    <_>
      <internalNodes>
        0 -1 159707 -2.3848834098316729e-04</internalNodes>
      <leafValues>
        -7.5890970230102539e-01 2.7055737376213074e-01</leafValues></_>
    <_>
      <internalNodes>
        0 -1 160420 -4.7302673920057714e-05</internalNodes>
      <leafValues>
        -8.8581019639968872e-01 1.8593916296958923e-01</leafValues></_>
    <_>
      <internalNodes>
        0 -1 218646 1.5730991959571838e-02</internalNodes>
      <leafValues>
        1.8385638296604156e-01 -8.4252208471298218e-01</leafValues></_>
    <_>
      <internalNodes>
        0 -1 77263 -3.5960897803306580e-02</internalNodes>
      <leafValues>
        -8.3904600143432617e-01 1.6450408101081848e-01</leafValues></_>
    <_>
      <internalNodes>
        0 -1 243133 -4.1638437658548355e-02</internalNodes>
      <leafValues>
        4.5280247926712036e-01 -3.8356623053550720e-01</leafValues></_></weakClassifiers></stage10>
</opencv_storage>
