<?xml version="1.0"?>
<opencv_storage>
<stage14>
  <maxWeakCount>8</maxWeakCount>
  <stageThreshold>-1.3043977022171021e+00</stageThreshold>
  <weakClassifiers>
    <_>
      <internalNodes>
        0 -1 211981 7.6016522943973541e-03</internalNodes>
      <leafValues>
        -2.3589222133159637e-01 7.2011804580688477e-01</leafValues></_>
    <_>
      <internalNodes>
        0 -1 86339 -1.3566585257649422e-02</internalNodes>
      <leafValues>
        5.3060615062713623e-01 -4.2343696951866150e-01</leafValues></_>
    <_>
      <internalNodes>
        0 -1 141923 2.0974961807951331e-04</internalNodes>
      <leafValues>
        -8.1549781560897827e-01 2.5735649466514587e-01</leafValues></_>
    <_>
      <internalNodes>
        0 -1 212630 8.8663757196627557e-05</internalNodes>
      <leafValues>
        -6.2096202373504639e-01 2.4093115329742432e-01</leafValues></_>
    <_>
      <internalNodes>
        0 -1 96015 1.1352964211255312e-03</internalNodes>
      <leafValues>
        2.0728476345539093e-01 -7.8342694044113159e-01</leafValues></_>
    <_>
      <internalNodes>
        0 -1 112824 9.0187077876180410e-04</internalNodes>
      <leafValues>
        1.4480280876159668e-01 -8.5550695657730103e-01</leafValues></_>
    <_>
      <internalNodes>
        0 -1 220397 3.5509630106389523e-03</internalNodes>
      <leafValues>
        1.7909952998161316e-01 -7.5033462047576904e-01</leafValues></_>
    <_>
      <internalNodes>
        0 -1 187671 -3.4932136535644531e-02</internalNodes>
      <leafValues>
        -8.0741530656814575e-01 1.6305080056190491e-01</leafValues></_></weakClassifiers></stage14>
</opencv_storage>
