<?xml version="1.0"?>
<opencv_storage>
<stage7>
  <maxWeakCount>8</maxWeakCount>
  <stageThreshold>-1.1721751689910889e+00</stageThreshold>
  <weakClassifiers>
    <_>
      <internalNodes>
        0 -1 110452 4.8140004277229309e-02</internalNodes>
      <leafValues>
        -4.1636362671852112e-01 7.1787232160568237e-01</leafValues></_>
    <_>
      <internalNodes>
        0 -1 21890 2.2995539009571075e-02</internalNodes>
      <leafValues>
        -4.0558952093124390e-01 6.8958050012588501e-01</leafValues></_>
    <_>
      <internalNodes>
        0 -1 211502 8.5938666015863419e-03</internalNodes>
      <leafValues>
        -3.7749585509300232e-01 7.0818614959716797e-01</leafValues></_>
    <_>
      <internalNodes>
        0 -1 123069 1.7720634350553155e-03</internalNodes>
      <leafValues>
        -6.7904752492904663e-01 3.5385829210281372e-01</leafValues></_>
    <_>
      <internalNodes>
        0 -1 132855 4.8947980394586921e-04</internalNodes>
      <leafValues>
        -9.0535497665405273e-01 1.5927556157112122e-01</leafValues></_>
    <_>
      <internalNodes>
        0 -1 249884 -1.3456509914249182e-03</internalNodes>
      <leafValues>
        -8.3189022541046143e-01 2.3129376769065857e-01</leafValues></_>
    <_>
      <internalNodes>
        0 -1 181198 -1.5286635607481003e-04</internalNodes>
      <leafValues>
        -8.5757714509963989e-01 1.3711000978946686e-01</leafValues></_>
    <_>
      <internalNodes>
        0 -1 202354 -3.9674993604421616e-03</internalNodes>
      <leafValues>
        -8.2533031702041626e-01 1.7864204943180084e-01</leafValues></_></weakClassifiers></stage7>
</opencv_storage>
