<?xml version="1.0"?>
<opencv_storage>
<stage16>
  <maxWeakCount>9</maxWeakCount>
  <stageThreshold>-9.9909740686416626e-01</stageThreshold>
  <weakClassifiers>
    <_>
      <internalNodes>
        0 -1 243297 -7.0401682751253247e-04</internalNodes>
      <leafValues>
        5.5043429136276245e-01 -4.6841880679130554e-01</leafValues></_>
    <_>
      <internalNodes>
        0 -1 247614 -1.4036464504897594e-02</internalNodes>
      <leafValues>
        6.2928503751754761e-01 -3.2262343168258667e-01</leafValues></_>
    <_>
      <internalNodes>
        0 -1 15839 3.3460071682929993e-01</internalNodes>
      <leafValues>
        -3.5582196712493896e-01 5.9785181283950806e-01</leafValues></_>
    <_>
      <internalNodes>
        0 -1 226567 3.0091295484453440e-03</internalNodes>
      <leafValues>
        -7.5324767827987671e-01 2.3817728459835052e-01</leafValues></_>
    <_>
      <internalNodes>
        0 -1 230214 3.3270199783146381e-03</internalNodes>
      <leafValues>
        1.0699360072612762e-01 -8.3327591419219971e-01</leafValues></_>
    <_>
      <internalNodes>
        0 -1 112826 1.7093655187636614e-03</internalNodes>
      <leafValues>
        1.3404147326946259e-01 -8.4324979782104492e-01</leafValues></_>
    <_>
      <internalNodes>
        0 -1 122293 1.0104509070515633e-02</internalNodes>
      <leafValues>
        -4.5697647333145142e-01 2.9915112257003784e-01</leafValues></_>
    <_>
      <internalNodes>
        0 -1 221529 -6.0948356986045837e-02</internalNodes>
      <leafValues>
        -9.1059911251068115e-01 1.6775271296501160e-01</leafValues></_>
    <_>
      <internalNodes>
        0 -1 217627 -1.5553005505353212e-04</internalNodes>
      <leafValues>
        1.4192011952400208e-01 -7.5611209869384766e-01</leafValues></_></weakClassifiers></stage16>
</opencv_storage>
