<?xml version="1.0"?>
<opencv_storage>
<stage9>
  <maxWeakCount>7</maxWeakCount>
  <stageThreshold>-1.5631930828094482e+00</stageThreshold>
  <weakClassifiers>
    <_>
      <internalNodes>
        0 -1 258783 1.3480754569172859e-02</internalNodes>
      <leafValues>
        -2.4958600103855133e-01 8.0970048904418945e-01</leafValues></_>
    <_>
      <internalNodes>
        0 -1 104937 1.8116071820259094e-02</internalNodes>
      <leafValues>
        -3.6171206831932068e-01 6.5151864290237427e-01</leafValues></_>
    <_>
      <internalNodes>
        0 -1 128212 -3.4337460994720459e-02</internalNodes>
      <leafValues>
        7.9009544849395752e-01 -2.6897555589675903e-01</leafValues></_>
    <_>
      <internalNodes>
        0 -1 257558 1.5290535986423492e-02</internalNodes>
      <leafValues>
        2.4949578940868378e-01 -8.1582736968994141e-01</leafValues></_>
    <_>
      <internalNodes>
        0 -1 237444 4.7397601883858442e-04</internalNodes>
      <leafValues>
        -7.5998616218566895e-01 2.1783152222633362e-01</leafValues></_>
    <_>
      <internalNodes>
        0 -1 60533 2.8983868658542633e-02</internalNodes>
      <leafValues>
        -4.2931482195854187e-01 4.9373582005500793e-01</leafValues></_>
    <_>
      <internalNodes>
        0 -1 188663 1.2864869087934494e-02</internalNodes>
      <leafValues>
        2.1950466930866241e-01 -8.0240070819854736e-01</leafValues></_></weakClassifiers></stage9>
</opencv_storage>
