<?xml version="1.0"?>
<opencv_storage>
<stage22>
  <maxWeakCount>11</maxWeakCount>
  <stageThreshold>-1.4445466995239258e+00</stageThreshold>
  <weakClassifiers>
    <_>
      <internalNodes>
        0 -1 230720 -8.7463133968412876e-04</internalNodes>
      <leafValues>
        5.7686996459960938e-01 -3.1469485163688660e-01</leafValues></_>
    <_>
      <internalNodes>
        0 -1 126851 7.8793102875351906e-03</internalNodes>
      <leafValues>
        -3.0741029977798462e-01 5.9961336851119995e-01</leafValues></_>
    <_>
      <internalNodes>
        0 -1 140920 -7.2767608799040318e-04</internalNodes>
      <leafValues>
        3.7140700221061707e-01 -4.4481435418128967e-01</leafValues></_>
    <_>
      <internalNodes>
        0 -1 186372 -7.0818590756971389e-05</internalNodes>
      <leafValues>
        -7.5623595714569092e-01 2.0532214641571045e-01</leafValues></_>
    <_>
      <internalNodes>
        0 -1 160397 -8.5019622929394245e-05</internalNodes>
      <leafValues>
        -7.4005192518234253e-01 1.7361274361610413e-01</leafValues></_>
    <_>
      <internalNodes>
        0 -1 232067 1.2470743968151510e-04</internalNodes>
      <leafValues>
        1.2247487157583237e-01 -8.2717365026473999e-01</leafValues></_>
    <_>
      <internalNodes>
        0 -1 240791 -2.6632115244865417e-02</internalNodes>
      <leafValues>
        5.7703524827957153e-01 -2.4012212455272675e-01</leafValues></_>
    <_>
      <internalNodes>
        0 -1 197911 6.3001894159242511e-04</internalNodes>
      <leafValues>
        -6.6207599639892578e-01 1.7567645013332367e-01</leafValues></_>
    <_>
      <internalNodes>
        0 -1 201392 -4.8704994842410088e-03</internalNodes>
      <leafValues>
        -8.4820437431335449e-01 1.2476108223199844e-01</leafValues></_>
    <_>
      <internalNodes>
        0 -1 253554 1.1808568611741066e-02</internalNodes>
      <leafValues>
        1.2535259127616882e-01 -7.4571853876113892e-01</leafValues></_>
    <_>
      <internalNodes>
        0 -1 246799 -4.6312687918543816e-03</internalNodes>
      <leafValues>
        5.1266872882843018e-01 -2.4744617938995361e-01</leafValues></_></weakClassifiers></stage22>
</opencv_storage>
