<?xml version="1.0"?>
<opencv_storage>
<stage17>
  <maxWeakCount>11</maxWeakCount>
  <stageThreshold>-9.3214470148086548e-01</stageThreshold>
  <weakClassifiers>
    <_>
      <internalNodes>
        0 -1 249892 -3.9438875392079353e-03</internalNodes>
      <leafValues>
        4.8958334326744080e-01 -6.6225963830947876e-01</leafValues></_>
    <_>
      <internalNodes>
        0 -1 211502 1.2405394576489925e-02</internalNodes>
      <leafValues>
        -3.4534564614295959e-01 6.5347784757614136e-01</leafValues></_>
    <_>
      <internalNodes>
        0 -1 119542 7.1930605918169022e-03</internalNodes>
      <leafValues>
        -3.5278722643852234e-01 5.1755660772323608e-01</leafValues></_>
    <_>
      <internalNodes>
        0 -1 210267 -3.7949741818010807e-03</internalNodes>
      <leafValues>
        -7.7726668119430542e-01 2.1671395003795624e-01</leafValues></_>
    <_>
      <internalNodes>
        0 -1 202038 7.5013013556599617e-03</internalNodes>
      <leafValues>
        1.4907500147819519e-01 -8.5930907726287842e-01</leafValues></_>
    <_>
      <internalNodes>
        0 -1 142754 -2.9968485236167908e-02</internalNodes>
      <leafValues>
        6.3040399551391602e-01 -2.5649833679199219e-01</leafValues></_>
    <_>
      <internalNodes>
        0 -1 707 5.2944147586822510e-01</internalNodes>
      <leafValues>
        -2.8147655725479126e-01 6.2267857789993286e-01</leafValues></_>
    <_>
      <internalNodes>
        0 -1 153421 -5.6727547198534012e-03</internalNodes>
      <leafValues>
        -6.7375749349594116e-01 2.2848898172378540e-01</leafValues></_>
    <_>
      <internalNodes>
        0 -1 117736 5.9414573479443789e-04</internalNodes>
      <leafValues>
        1.8565602600574493e-01 -7.4727302789688110e-01</leafValues></_>
    <_>
      <internalNodes>
        0 -1 131772 4.5307171531021595e-03</internalNodes>
      <leafValues>
        1.6903226077556610e-01 -7.1589279174804688e-01</leafValues></_>
    <_>
      <internalNodes>
        0 -1 132838 -3.5818750038743019e-03</internalNodes>
      <leafValues>
        -7.9279190301895142e-01 1.4089331030845642e-01</leafValues></_></weakClassifiers></stage17>
</opencv_storage>
