<?xml version="1.0"?>
<opencv_storage>
<stage5>
  <maxWeakCount>6</maxWeakCount>
  <stageThreshold>-8.0646723508834839e-01</stageThreshold>
  <weakClassifiers>
    <_>
      <internalNodes>
        0 -1 127569 -3.0222784727811813e-02</internalNodes>
      <leafValues>
        8.0165290832519531e-01 -4.5103603601455688e-01</leafValues></_>
    <_>
      <internalNodes>
        0 -1 206898 4.5492742210626602e-03</internalNodes>
      <leafValues>
        -7.0813864469528198e-01 5.1812255382537842e-01</leafValues></_>
    <_>
      <internalNodes>
        0 -1 39092 1.9541881978511810e-02</internalNodes>
      <leafValues>
        -4.0261486172676086e-01 6.9375413656234741e-01</leafValues></_>
    <_>
      <internalNodes>
        0 -1 16214 1.0213753581047058e-01</internalNodes>
      <leafValues>
        -3.3079823851585388e-01 7.3579311370849609e-01</leafValues></_>
    <_>
      <internalNodes>
        0 -1 247256 -1.9446503371000290e-02</internalNodes>
      <leafValues>
        7.4249929189682007e-01 -3.2048583030700684e-01</leafValues></_>
    <_>
      <internalNodes>
        0 -1 79870 -1.9983609672635794e-03</internalNodes>
      <leafValues>
        3.4362122416496277e-01 -7.4335503578186035e-01</leafValues></_></weakClassifiers></stage5>
</opencv_storage>
