<?xml version="1.0"?>
<opencv_storage>
<stage11>
  <maxWeakCount>9</maxWeakCount>
  <stageThreshold>-9.3888509273529053e-01</stageThreshold>
  <weakClassifiers>
    <_>
      <internalNodes>
        0 -1 131379 5.3908847272396088e-02</internalNodes>
      <leafValues>
        -2.3724734783172607e-01 7.7679502964019775e-01</leafValues></_>
    <_>
      <internalNodes>
        0 -1 139895 2.1463884040713310e-03</internalNodes>
      <leafValues>
        -4.8123764991760254e-01 5.2016526460647583e-01</leafValues></_>
    <_>
      <internalNodes>
        0 -1 254806 -8.2148760557174683e-03</internalNodes>
      <leafValues>
        6.2288457155227661e-01 -3.3458116650581360e-01</leafValues></_>
    <_>
      <internalNodes>
        0 -1 221025 2.2001289762556553e-03</internalNodes>
      <leafValues>
        -7.2135162353515625e-01 2.6645493507385254e-01</leafValues></_>
    <_>
      <internalNodes>
        0 -1 698 4.0426224470138550e-01</internalNodes>
      <leafValues>
        -3.1446024775505066e-01 5.9760808944702148e-01</leafValues></_>
    <_>
      <internalNodes>
        0 -1 24737 -1.5119217336177826e-02</internalNodes>
      <leafValues>
        6.4705812931060791e-01 -2.9011538624763489e-01</leafValues></_>
    <_>
      <internalNodes>
        0 -1 163668 -1.3459738693200052e-04</internalNodes>
      <leafValues>
        1.8402841687202454e-01 -8.3641523122787476e-01</leafValues></_>
    <_>
      <internalNodes>
        0 -1 185522 -1.3114069588482380e-04</internalNodes>
      <leafValues>
        -7.7069866657257080e-01 1.8762271106243134e-01</leafValues></_>
    <_>
      <internalNodes>
        0 -1 184289 2.0281739532947540e-02</internalNodes>
      <leafValues>
        1.6392076015472412e-01 -8.3318322896957397e-01</leafValues></_></weakClassifiers></stage11>
</opencv_storage>
