<?xml version="1.0"?>
<opencv_storage>
<stage21>
  <maxWeakCount>10</maxWeakCount>
  <stageThreshold>-7.6080071926116943e-01</stageThreshold>
  <weakClassifiers>
    <_>
      <internalNodes>
        0 -1 222033 8.0746216699481010e-03</internalNodes>
      <leafValues>
        -2.9206252098083496e-01 6.2339031696319580e-01</leafValues></_>
    <_>
      <internalNodes>
        0 -1 156887 -7.0397318340837955e-03</internalNodes>
      <leafValues>
        5.1351547241210938e-01 -3.0350938439369202e-01</leafValues></_>
    <_>
      <internalNodes>
        0 -1 138090 -3.5575586371123791e-03</internalNodes>
      <leafValues>
        5.6371486186981201e-01 -2.5332725048065186e-01</leafValues></_>
    <_>
      <internalNodes>
        0 -1 249689 2.3486923892050982e-03</internalNodes>
      <leafValues>
        2.2110593318939209e-01 -7.2024911642074585e-01</leafValues></_>
    <_>
      <internalNodes>
        0 -1 208561 7.1812225505709648e-03</internalNodes>
      <leafValues>
        1.0917229205369949e-01 -8.5872125625610352e-01</leafValues></_>
    <_>
      <internalNodes>
        0 -1 221517 -4.7788402298465371e-04</internalNodes>
      <leafValues>
        -7.7051162719726563e-01 1.3658116757869720e-01</leafValues></_>
    <_>
      <internalNodes>
        0 -1 244653 3.1220563687384129e-03</internalNodes>
      <leafValues>
        1.3715369999408722e-01 -8.0286616086959839e-01</leafValues></_>
    <_>
      <internalNodes>
        0 -1 149815 1.8118302104994655e-03</internalNodes>
      <leafValues>
        -5.9112626314163208e-01 1.9939553737640381e-01</leafValues></_>
    <_>
      <internalNodes>
        0 -1 234233 -5.9781700372695923e-02</internalNodes>
      <leafValues>
        1.7312230169773102e-01 -6.5535926818847656e-01</leafValues></_>
    <_>
      <internalNodes>
        0 -1 120392 -2.5321249850094318e-03</internalNodes>
      <leafValues>
        -7.5117266178131104e-01 1.6951179504394531e-01</leafValues></_></weakClassifiers></stage21>
</opencv_storage>
