<?xml version="1.0"?>
<opencv_storage>
<cascade>
  <stageType>BOOST</stageType>
  <featureType>HAAR</featureType>
  <height>25</height>
  <width>25</width>
  <stageParams>
    <boostType>GAB</boostType>
    <minHitRate>9.9500000476837158e-01</minHitRate>
    <maxFalseAlarm>5.0000000000000000e-01</maxFalseAlarm>
    <weightTrimRate>9.4999999999999996e-01</weightTrimRate>
    <maxDepth>1</maxDepth>
    <maxWeakCount>100</maxWeakCount></stageParams>
  <featureParams>
    <maxCatCount>0</maxCatCount>
    <featSize>1</featSize>
    <mode>ALL</mode></featureParams>
  <stageNum>8</stageNum>
  <stages>
    <!-- stage 0 -->
    <_>
      <maxWeakCount>6</maxWeakCount>
      <stageThreshold>-1.1742255687713623e+00</stageThreshold>
      <weakClassifiers>
        <_>
          <internalNodes>
            0 -1 12 2.5849016383290291e-02</internalNodes>
          <leafValues>
            -6.5856528282165527e-01 8.4461510181427002e-01</leafValues></_>
        <_>
          <internalNodes>
            0 -1 36 -2.1113503724336624e-02</internalNodes>
          <leafValues>
            8.8307744264602661e-01 -5.8721554279327393e-01</leafValues></_>
        <_>
          <internalNodes>
            0 -1 8 2.1133940666913986e-02</internalNodes>
          <leafValues>
            -3.7970238924026489e-01 8.0506807565689087e-01</leafValues></_>
        <_>
          <internalNodes>
            0 -1 19 -1.0044747032225132e-02</internalNodes>
          <leafValues>
            4.8706448078155518e-01 -6.1673104763031006e-01</leafValues></_>
        <_>
          <internalNodes>
            0 -1 15 -3.2578274607658386e-02</internalNodes>
          <leafValues>
            6.7113661766052246e-01 -3.5667973756790161e-01</leafValues></_>
        <_>
          <internalNodes>
            0 -1 30 5.9725012397393584e-04</internalNodes>
          <leafValues>
            -5.6299704313278198e-01 3.2087287306785583e-01</leafValues></_></weakClassifiers></_>
    <!-- stage 1 -->
    <_>
      <maxWeakCount>7</maxWeakCount>
      <stageThreshold>-1.2485843896865845e+00</stageThreshold>
      <weakClassifiers>
        <_>
          <internalNodes>
            0 -1 34 2.0339533686637878e-02</internalNodes>
          <leafValues>
            -6.8013256788253784e-01 8.1421411037445068e-01</leafValues></_>
        <_>
          <internalNodes>
            0 -1 2 2.8485637158155441e-02</internalNodes>
          <leafValues>
            -5.8632314205169678e-01 8.2842171192169189e-01</leafValues></_>
        <_>
          <internalNodes>
            0 -1 13 3.6643922328948975e-02</internalNodes>
          <leafValues>
            -3.6162772774696350e-01 7.7848148345947266e-01</leafValues></_>
        <_>
          <internalNodes>
            0 -1 50 -1.2751197442412376e-02</internalNodes>
          <leafValues>
            7.6811152696609497e-01 -3.7787756323814392e-01</leafValues></_>
        <_>
          <internalNodes>
            0 -1 28 -7.1410555392503738e-05</internalNodes>
          <leafValues>
            -8.6089271306991577e-01 2.6804751157760620e-01</leafValues></_>
        <_>
          <internalNodes>
            0 -1 33 -7.6645985245704651e-05</internalNodes>
          <leafValues>
            -8.0291765928268433e-01 2.2873516380786896e-01</leafValues></_>
        <_>
          <internalNodes>
            0 -1 52 -1.8699029460549355e-03</internalNodes>
          <leafValues>
            -6.8121170997619629e-01 2.6059392094612122e-01</leafValues></_></weakClassifiers></_>
    <!-- stage 2 -->
    <_>
      <maxWeakCount>6</maxWeakCount>
      <stageThreshold>-9.7121340036392212e-01</stageThreshold>
      <weakClassifiers>
        <_>
          <internalNodes>
            0 -1 25 3.1931206583976746e-02</internalNodes>
          <leafValues>
            -4.2819282412528992e-01 8.4625685214996338e-01</leafValues></_>
        <_>
          <internalNodes>
            0 -1 35 -6.2262089923024178e-03</internalNodes>
          <leafValues>
            5.1365679502487183e-01 -7.9223221540451050e-01</leafValues></_>
        <_>
          <internalNodes>
            0 -1 7 2.1885380148887634e-02</internalNodes>
          <leafValues>
            -5.6147307157516479e-01 6.1260676383972168e-01</leafValues></_>
        <_>
          <internalNodes>
            0 -1 5 3.5052657127380371e-01</internalNodes>
          <leafValues>
            -3.5871908068656921e-01 7.7249836921691895e-01</leafValues></_>
        <_>
          <internalNodes>
            0 -1 50 -1.9033979624509811e-02</internalNodes>
          <leafValues>
            7.1190619468688965e-01 -3.1023111939430237e-01</leafValues></_>
        <_>
          <internalNodes>
            0 -1 11 -1.4661232853541151e-05</internalNodes>
          <leafValues>
            3.0962496995925903e-01 -6.7371988296508789e-01</leafValues></_></weakClassifiers></_>
    <!-- stage 3 -->
    <_>
      <maxWeakCount>7</maxWeakCount>
      <stageThreshold>-1.1233266592025757e+00</stageThreshold>
      <weakClassifiers>
        <_>
          <internalNodes>
            0 -1 21 -4.1248943656682968e-02</internalNodes>
          <leafValues>
            8.2279610633850098e-01 -3.9760637283325195e-01</leafValues></_>
        <_>
          <internalNodes>
            0 -1 29 -1.9526914693415165e-03</internalNodes>
          <leafValues>
            4.4092527031898499e-01 -8.5402846336364746e-01</leafValues></_>
        <_>
          <internalNodes>
            0 -1 27 -7.7464051544666290e-02</internalNodes>
          <leafValues>
            7.2354406118392944e-01 -4.2883083224296570e-01</leafValues></_>
        <_>
          <internalNodes>
            0 -1 24 -2.7527058497071266e-02</internalNodes>
          <leafValues>
            7.7701866626739502e-01 -3.3011811971664429e-01</leafValues></_>
        <_>
          <internalNodes>
            0 -1 44 1.0457016469445080e-04</internalNodes>
          <leafValues>
            -7.7159637212753296e-01 3.1749239563941956e-01</leafValues></_>
        <_>
          <internalNodes>
            0 -1 55 1.8746028654277325e-03</internalNodes>
          <leafValues>
            2.8773477673530579e-01 -7.5697457790374756e-01</leafValues></_>
        <_>
          <internalNodes>
            0 -1 51 -3.5590841434895992e-03</internalNodes>
          <leafValues>
            -8.3506876230239868e-01 2.1874383091926575e-01</leafValues></_></weakClassifiers></_>
    <!-- stage 4 -->
    <_>
      <maxWeakCount>8</maxWeakCount>
      <stageThreshold>-1.5633063316345215e+00</stageThreshold>
      <weakClassifiers>
        <_>
          <internalNodes>
            0 -1 20 1.1253780685365200e-02</internalNodes>
          <leafValues>
            -3.6876061558723450e-01 7.8726673126220703e-01</leafValues></_>
        <_>
          <internalNodes>
            0 -1 5 3.9238134026527405e-01</internalNodes>
          <leafValues>
            -2.7993690967559814e-01 8.0435693264007568e-01</leafValues></_>
        <_>
          <internalNodes>
            0 -1 9 1.8355295062065125e-02</internalNodes>
          <leafValues>
            -3.9376807212829590e-01 6.0870027542114258e-01</leafValues></_>
        <_>
          <internalNodes>
            0 -1 26 6.3935853540897369e-04</internalNodes>
          <leafValues>
            -8.4890127182006836e-01 2.9193589091300964e-01</leafValues></_>
        <_>
          <internalNodes>
            0 -1 49 2.9794289730489254e-05</internalNodes>
          <leafValues>
            -7.5308752059936523e-01 2.5576850771903992e-01</leafValues></_>
        <_>
          <internalNodes>
            0 -1 54 4.2800746858119965e-02</internalNodes>
          <leafValues>
            -3.0264657735824585e-01 8.2099026441574097e-01</leafValues></_>
        <_>
          <internalNodes>
            0 -1 1 1.2648513913154602e-01</internalNodes>
          <leafValues>
            -2.5361216068267822e-01 7.0594441890716553e-01</leafValues></_>
        <_>
          <internalNodes>
            0 -1 42 1.6256485832855105e-04</internalNodes>
          <leafValues>
            -6.5945774316787720e-01 2.9969412088394165e-01</leafValues></_></weakClassifiers></_>
    <!-- stage 5 -->
    <_>
      <maxWeakCount>9</maxWeakCount>
      <stageThreshold>-1.1867696046829224e+00</stageThreshold>
      <weakClassifiers>
        <_>
          <internalNodes>
            0 -1 31 5.9729695320129395e-02</internalNodes>
          <leafValues>
            -3.0050590634346008e-01 7.4773979187011719e-01</leafValues></_>
        <_>
          <internalNodes>
            0 -1 16 -3.8591139018535614e-02</internalNodes>
          <leafValues>
            6.7675548791885376e-01 -4.1160354018211365e-01</leafValues></_>
        <_>
          <internalNodes>
            0 -1 43 -1.1684500350384042e-04</internalNodes>
          <leafValues>
            3.0971994996070862e-01 -8.1407195329666138e-01</leafValues></_>
        <_>
          <internalNodes>
            0 -1 23 -1.0997188510373235e-03</internalNodes>
          <leafValues>
            -8.1248342990875244e-01 2.1662645041942596e-01</leafValues></_>
        <_>
          <internalNodes>
            0 -1 46 1.1192713827767875e-05</internalNodes>
          <leafValues>
            -8.2287758588790894e-01 2.0117811858654022e-01</leafValues></_>
        <_>
          <internalNodes>
            0 -1 14 -9.5987208187580109e-02</internalNodes>
          <leafValues>
            6.0549765825271606e-01 -3.3555194735527039e-01</leafValues></_>
        <_>
          <internalNodes>
            0 -1 45 -3.0009607144165784e-05</internalNodes>
          <leafValues>
            2.1831250190734863e-01 -8.0708593130111694e-01</leafValues></_>
        <_>
          <internalNodes>
            0 -1 18 5.0976902246475220e-02</internalNodes>
          <leafValues>
            -2.4659146368503571e-01 8.1721216440200806e-01</leafValues></_>
        <_>
          <internalNodes>
            0 -1 10 3.1800806755200028e-04</internalNodes>
          <leafValues>
            2.6630234718322754e-01 -7.5656926631927490e-01</leafValues></_></weakClassifiers></_>
    <!-- stage 6 -->
    <_>
      <maxWeakCount>9</maxWeakCount>
      <stageThreshold>-1.0620908737182617e+00</stageThreshold>
      <weakClassifiers>
        <_>
          <internalNodes>
            0 -1 21 -6.1408918350934982e-02</internalNodes>
          <leafValues>
            8.0646783113479614e-01 -1.9977314770221710e-01</leafValues></_>
        <_>
          <internalNodes>
            0 -1 38 -2.0395260304212570e-02</internalNodes>
          <leafValues>
            6.8155336380004883e-01 -3.4407985210418701e-01</leafValues></_>
        <_>
          <internalNodes>
            0 -1 22 3.4750698250718415e-04</internalNodes>
          <leafValues>
            -8.5558259487152100e-01 2.9871374368667603e-01</leafValues></_>
        <_>
          <internalNodes>
            0 -1 39 -5.8315359055995941e-03</internalNodes>
          <leafValues>
            6.3710623979568481e-01 -3.3660718798637390e-01</leafValues></_>
        <_>
          <internalNodes>
            0 -1 6 1.3519349694252014e-01</internalNodes>
          <leafValues>
            -3.2211714982986450e-01 5.9958177804946899e-01</leafValues></_>
        <_>
          <internalNodes>
            0 -1 3 -9.5020815730094910e-02</internalNodes>
          <leafValues>
            8.2941991090774536e-01 -2.0807109773159027e-01</leafValues></_>
        <_>
          <internalNodes>
            0 -1 17 -8.0798447015695274e-05</internalNodes>
          <leafValues>
            3.0996629595756531e-01 -7.1231544017791748e-01</leafValues></_>
        <_>
          <internalNodes>
            0 -1 14 -8.4497600793838501e-02</internalNodes>
          <leafValues>
            5.4585671424865723e-01 -3.5017839074134827e-01</leafValues></_>
        <_>
          <internalNodes>
            0 -1 47 -2.1606099835480563e-05</internalNodes>
          <leafValues>
            2.1871905028820038e-01 -7.5526827573776245e-01</leafValues></_></weakClassifiers></_>
    <!-- stage 7 -->
    <_>
      <maxWeakCount>8</maxWeakCount>
      <stageThreshold>-9.0464109182357788e-01</stageThreshold>
      <weakClassifiers>
        <_>
          <internalNodes>
            0 -1 40 9.1468478785827756e-04</internalNodes>
          <leafValues>
            -5.6474614143371582e-01 6.0727334022521973e-01</leafValues></_>
        <_>
          <internalNodes>
            0 -1 48 -1.3182745315134525e-02</internalNodes>
          <leafValues>
            7.0329886674880981e-01 -3.5586193203926086e-01</leafValues></_>
        <_>
          <internalNodes>
            0 -1 53 1.4469723682850599e-03</internalNodes>
          <leafValues>
            2.9013484716415405e-01 -7.7538180351257324e-01</leafValues></_>
        <_>
          <internalNodes>
            0 -1 4 -2.3348748683929443e-02</internalNodes>
          <leafValues>
            5.1002663373947144e-01 -3.8319730758666992e-01</leafValues></_>
        <_>
          <internalNodes>
            0 -1 37 -9.5878771389834583e-05</internalNodes>
          <leafValues>
            -8.4366101026535034e-01 2.1130292117595673e-01</leafValues></_>
        <_>
          <internalNodes>
            0 -1 32 -6.2339226133190095e-05</internalNodes>
          <leafValues>
            -8.0587232112884521e-01 1.7858828604221344e-01</leafValues></_>
        <_>
          <internalNodes>
            0 -1 0 8.7580040097236633e-02</internalNodes>
          <leafValues>
            -3.3729994297027588e-01 5.2456808090209961e-01</leafValues></_>
        <_>
          <internalNodes>
            0 -1 41 -2.2881770564708859e-04</internalNodes>
          <leafValues>
            -6.2602448463439941e-01 2.6008686423301697e-01</leafValues></_></weakClassifiers></_></stages>
  <features>
    <_>
      <rects>
        <_>
          0 1 8 22 -1.</_>
        <_>
          4 1 4 22 2.</_></rects>
      <tilted>0</tilted></_>
    <_>
      <rects>
        <_>
          0 2 24 8 -1.</_>
        <_>
          6 2 12 8 2.</_></rects>
      <tilted>0</tilted></_>
    <_>
      <rects>
        <_>
          0 2 16 6 -1.</_>
        <_>
          0 2 8 3 2.</_>
        <_>
          8 5 8 3 2.</_></rects>
      <tilted>0</tilted></_>
    <_>
      <rects>
        <_>
          1 2 24 4 -1.</_>
        <_>
          7 2 12 4 2.</_></rects>
      <tilted>0</tilted></_>
    <_>
      <rects>
        <_>
          1 6 6 13 -1.</_>
        <_>
          3 6 2 13 3.</_></rects>
      <tilted>0</tilted></_>
    <_>
      <rects>
        <_>
          1 15 24 9 -1.</_>
        <_>
          9 18 8 3 9.</_></rects>
      <tilted>0</tilted></_>
    <_>
      <rects>
        <_>
          1 17 24 7 -1.</_>
        <_>
          7 17 12 7 2.</_></rects>
      <tilted>0</tilted></_>
    <_>
      <rects>
        <_>
          2 2 6 14 -1.</_>
        <_>
          2 2 3 7 2.</_>
        <_>
          5 9 3 7 2.</_></rects>
      <tilted>0</tilted></_>
    <_>
      <rects>
        <_>
          2 10 6 8 -1.</_>
        <_>
          5 10 3 8 2.</_></rects>
      <tilted>0</tilted></_>
    <_>
      <rects>
        <_>
          3 0 4 16 -1.</_>
        <_>
          3 0 2 8 2.</_>
        <_>
          5 8 2 8 2.</_></rects>
      <tilted>0</tilted></_>
    <_>
      <rects>
        <_>
          4 11 6 10 -1.</_>
        <_>
          4 16 6 5 2.</_></rects>
      <tilted>0</tilted></_>
    <_>
      <rects>
        <_>
          4 13 4 6 -1.</_>
        <_>
          4 16 4 3 2.</_></rects>
      <tilted>0</tilted></_>
    <_>
      <rects>
        <_>
          4 18 18 3 -1.</_>
        <_>
          10 18 6 3 3.</_></rects>
      <tilted>0</tilted></_>
    <_>
      <rects>
        <_>
          5 12 9 4 -1.</_>
        <_>
          5 12 9 2 2.</_></rects>
      <tilted>1</tilted></_>
    <_>
      <rects>
        <_>
          6 0 8 6 -1.</_>
        <_>
          6 0 4 6 2.</_></rects>
      <tilted>1</tilted></_>
    <_>
      <rects>
        <_>
          6 0 14 8 -1.</_>
        <_>
          6 2 14 4 2.</_></rects>
      <tilted>0</tilted></_>
    <_>
      <rects>
        <_>
          6 1 14 6 -1.</_>
        <_>
          6 3 14 2 3.</_></rects>
      <tilted>0</tilted></_>
    <_>
      <rects>
        <_>
          6 13 12 2 -1.</_>
        <_>
          9 13 6 2 2.</_></rects>
      <tilted>0</tilted></_>
    <_>
      <rects>
        <_>
          7 0 4 7 -1.</_>
        <_>
          7 0 2 7 2.</_></rects>
      <tilted>1</tilted></_>
    <_>
      <rects>
        <_>
          7 2 13 6 -1.</_>
        <_>
          5 4 13 2 3.</_></rects>
      <tilted>1</tilted></_>
    <_>
      <rects>
        <_>
          7 5 12 4 -1.</_>
        <_>
          7 6 12 2 2.</_></rects>
      <tilted>0</tilted></_>
    <_>
      <rects>
        <_>
          7 18 12 6 -1.</_>
        <_>
          7 21 12 3 2.</_></rects>
      <tilted>0</tilted></_>
    <_>
      <rects>
        <_>
          8 4 8 4 -1.</_>
        <_>
          10 4 4 4 2.</_></rects>
      <tilted>0</tilted></_>
    <_>
      <rects>
        <_>
          8 7 8 15 -1.</_>
        <_>
          12 7 4 15 2.</_></rects>
      <tilted>0</tilted></_>
    <_>
      <rects>
        <_>
          9 0 4 8 -1.</_>
        <_>
          10 1 2 8 2.</_></rects>
      <tilted>1</tilted></_>
    <_>
      <rects>
        <_>
          9 2 8 6 -1.</_>
        <_>
          9 5 8 3 2.</_></rects>
      <tilted>0</tilted></_>
    <_>
      <rects>
        <_>
          9 19 8 4 -1.</_>
        <_>
          11 19 4 4 2.</_></rects>
      <tilted>0</tilted></_>
    <_>
      <rects>
        <_>
          10 0 6 10 -1.</_>
        <_>
          10 0 3 10 2.</_></rects>
      <tilted>1</tilted></_>
    <_>
      <rects>
        <_>
          10 5 2 4 -1.</_>
        <_>
          11 5 1 4 2.</_></rects>
      <tilted>0</tilted></_>
    <_>
      <rects>
        <_>
          10 6 6 8 -1.</_>
        <_>
          10 10 6 4 2.</_></rects>
      <tilted>0</tilted></_>
    <_>
      <rects>
        <_>
          10 7 6 3 -1.</_>
        <_>
          12 7 2 3 3.</_></rects>
      <tilted>0</tilted></_>
    <_>
      <rects>
        <_>
          10 9 8 8 -1.</_>
        <_>
          8 11 8 4 2.</_></rects>
      <tilted>1</tilted></_>
    <_>
      <rects>
        <_>
          11 3 4 3 -1.</_>
        <_>
          10 4 4 1 3.</_></rects>
      <tilted>1</tilted></_>
    <_>
      <rects>
        <_>
          11 5 6 3 -1.</_>
        <_>
          13 5 2 3 3.</_></rects>
      <tilted>0</tilted></_>
    <_>
      <rects>
        <_>
          11 13 4 12 -1.</_>
        <_>
          11 17 4 4 3.</_></rects>
      <tilted>0</tilted></_>
    <_>
      <rects>
        <_>
          11 13 10 8 -1.</_>
        <_>
          11 13 5 4 2.</_>
        <_>
          16 17 5 4 2.</_></rects>
      <tilted>0</tilted></_>
    <_>
      <rects>
        <_>
          12 2 10 6 -1.</_>
        <_>
          12 2 5 3 2.</_>
        <_>
          17 5 5 3 2.</_></rects>
      <tilted>0</tilted></_>
    <_>
      <rects>
        <_>
          12 4 4 4 -1.</_>
        <_>
          13 4 2 4 2.</_></rects>
      <tilted>0</tilted></_>
    <_>
      <rects>
        <_>
          13 3 10 4 -1.</_>
        <_>
          13 3 5 2 2.</_>
        <_>
          18 5 5 2 2.</_></rects>
      <tilted>0</tilted></_>
    <_>
      <rects>
        <_>
          13 10 3 6 -1.</_>
        <_>
          14 10 1 6 3.</_></rects>
      <tilted>0</tilted></_>
    <_>
      <rects>
        <_>
          13 19 2 3 -1.</_>
        <_>
          13 19 1 3 2.</_></rects>
      <tilted>1</tilted></_>
    <_>
      <rects>
        <_>
          14 8 10 4 -1.</_>
        <_>
          14 8 10 2 2.</_></rects>
      <tilted>1</tilted></_>
    <_>
      <rects>
        <_>
          14 15 6 3 -1.</_>
        <_>
          13 16 6 1 3.</_></rects>
      <tilted>1</tilted></_>
    <_>
      <rects>
        <_>
          15 4 2 4 -1.</_>
        <_>
          16 4 1 4 2.</_></rects>
      <tilted>0</tilted></_>
    <_>
      <rects>
        <_>
          15 11 8 6 -1.</_>
        <_>
          15 13 8 2 3.</_></rects>
      <tilted>0</tilted></_>
    <_>
      <rects>
        <_>
          15 18 2 5 -1.</_>
        <_>
          16 18 1 5 2.</_></rects>
      <tilted>0</tilted></_>
    <_>
      <rects>
        <_>
          16 10 6 6 -1.</_>
        <_>
          16 12 6 2 3.</_></rects>
      <tilted>0</tilted></_>
    <_>
      <rects>
        <_>
          16 18 2 5 -1.</_>
        <_>
          17 18 1 5 2.</_></rects>
      <tilted>0</tilted></_>
    <_>
      <rects>
        <_>
          18 4 6 2 -1.</_>
        <_>
          18 4 6 1 2.</_></rects>
      <tilted>1</tilted></_>
    <_>
      <rects>
        <_>
          18 10 6 4 -1.</_>
        <_>
          17 11 6 2 2.</_></rects>
      <tilted>1</tilted></_>
    <_>
      <rects>
        <_>
          19 1 6 4 -1.</_>
        <_>
          18 2 6 2 2.</_></rects>
      <tilted>1</tilted></_>
    <_>
      <rects>
        <_>
          19 9 4 6 -1.</_>
        <_>
          19 11 4 2 3.</_></rects>
      <tilted>0</tilted></_>
    <_>
      <rects>
        <_>
          20 7 3 9 -1.</_>
        <_>
          17 10 3 3 3.</_></rects>
      <tilted>1</tilted></_>
    <_>
      <rects>
        <_>
          20 15 3 4 -1.</_>
        <_>
          20 15 3 2 2.</_></rects>
      <tilted>1</tilted></_>
    <_>
      <rects>
        <_>
          21 0 4 4 -1.</_>
        <_>
          21 0 4 2 2.</_></rects>
      <tilted>1</tilted></_>
    <_>
      <rects>
        <_>
          21 11 4 8 -1.</_>
        <_>
          21 11 4 4 2.</_></rects>
      <tilted>1</tilted></_></features></cascade>
</opencv_storage>
